function [y1] = myNeuralNetworkFunction(x1)
%MYNEURALNETWORKFUNCTION neural network simulation function.
%
% Auto-generated by MATLAB, 23-Feb-2021 14:04:01.
%
% [y1] = myNeuralNetworkFunction(x1) takes these arguments:
%   x = 1xQ matrix, input #1
% and returns:
%   y = 1xQ matrix, output #1
% where Q is the number of samples.

%#ok<*RPMT0>

% ===== NEURAL NETWORK CONSTANTS =====

% Input 1
x1_step1.xoffset = 0;
x1_step1.gain = 0.318309886183791;
x1_step1.ymin = -1;

% Layer 1
b1 = [-11.371938139519711441;-7.4647909562119485471;2.371987869037974761;-2.1314976262653479999;-0.50276873113846165531;-0.32078151594890552678;-1.7359410546841362866;2.442941496691487302;7.2070727256843660768;11.986567319122441333];
IW1_1 = [11.016977055819078046;8.0650499089540996778;-2.7388252098516741029;5.5790031278282139482;2.8221919991554265117;-2.6327527198890923188;-5.0660572916014512401;2.950244408227969295;8.0418460030917628956;11.984059185520321122];

% Layer 2
b2 = 0.099892605663058672838;
LW2_1 = [0.061658309605330433034 0.036077943954049840336 -1.0038674852294744433 -0.013171585641365007521 -0.5853477301096284835 0.84023275614307812997 0.020823430371121730981 0.86353483845117184892 0.053047691229854032624 0.076380654842922723891];

% Output 1
y1_step1.ymin = -1;
y1_step1.gain = 1.00012588817196;
y1_step1.xoffset = -0.999874127673875;

% ===== SIMULATION ========

% Dimensions
Q = size(x1,2); % samples

% Input 1
xp1 = mapminmax_apply(x1,x1_step1);

% Layer 1
a1 = tansig_apply(repmat(b1,1,Q) + IW1_1*xp1);

% Layer 2
a2 = repmat(b2,1,Q) + LW2_1*a1;

% Output 1
y1 = mapminmax_reverse(a2,y1_step1);
end

% ===== MODULE FUNCTIONS ========

% Map Minimum and Maximum Input Processing Function
function y = mapminmax_apply(x,settings)
y = bsxfun(@minus,x,settings.xoffset);
y = bsxfun(@times,y,settings.gain);
y = bsxfun(@plus,y,settings.ymin);
end

% Sigmoid Symmetric Transfer Function
function a = tansig_apply(n,~)
a = 2 ./ (1 + exp(-2*n)) - 1;
end

% Map Minimum and Maximum Output Reverse-Processing Function
function x = mapminmax_reverse(y,settings)
x = bsxfun(@minus,y,settings.ymin);
x = bsxfun(@rdivide,x,settings.gain);
x = bsxfun(@plus,x,settings.xoffset);
end
